Language model created by QuickLM on Thu Feb  6 02:53:08 EST 2020
Copyright (c) 1996-2010 Carnegie Mellon University and Alexander I. Rudnicky

The model is in standard ARPA format, designed by Doug Paul while he was at MITRE.

The code that was used to produce this language model is available in Open Source.
Please visit http://www.speech.cs.cmu.edu/tools/ for more information

The (fixed) discount mass is 0.5. The backoffs are computed using the ratio method.
This model based on a corpus of 66 sentences and 68 words

\data\
ngram 1=68
ngram 2=132
ngram 3=66

\1-grams:
-0.7782 </s> -0.3010
-0.7782 <s> -0.2218
-2.5977 ABLE -0.2218
-2.5977 AN -0.2218
-2.5977 ARRIVE -0.2218
-2.5977 ATEGO -0.2218
-2.5977 BAD -0.2218
-2.5977 BUDDY -0.2218
-2.5977 CADABRA -0.2218
-2.5977 CALL -0.2218
-2.5977 CAT -0.2218
-2.5977 CHANGE -0.2218
-2.5977 DAMN -0.2218
-2.5977 DOUBT -0.2218
-2.5977 DROP -0.2218
-2.5977 EDGE -0.2218
-2.5977 EEGA -0.2218
-2.5977 EEGAA -0.2218
-2.5977 EEGO -0.2218
-2.5977 EEGOO -0.2218
-2.5977 EGA -0.2218
-2.5977 EGO -0.2218
-2.5977 FINANCE -0.2218
-2.5977 GRIN -0.2218
-2.5977 LIFE -0.2218
-2.5977 LOAD -0.2218
-2.5977 LYMUS -0.2218
-2.5977 MANAGER -0.2218
-2.5977 MAXIMA -0.2218
-2.5977 MOM -0.2218
-2.5977 NAME -0.2218
-2.5977 NICE -0.2218
-2.5977 NOTE -0.2218
-2.5977 OTEGA -0.2218
-2.5977 OTEGO -0.2218
-2.5977 PAINT -0.2218
-2.5977 PAY -0.2218
-2.5977 PIOPLE -0.2218
-2.5977 PLACE -0.2218
-2.5977 POSITION -0.2218
-2.5977 PRATEGA -0.2218
-2.5977 PRATEGO -0.2218
-2.5977 PROBABLY -0.2218
-2.5977 PROOTEGO -0.2218
-2.5977 PROTECTED -0.2218
-2.5977 PROTEEGO -0.2218
-2.5977 PROTEGA -0.2218
-2.5977 PROTEGO -0.2218
-2.5977 PROTEGOO -0.2218
-2.5977 QUIETLY -0.2218
-2.5977 RATEGA -0.2218
-2.5977 RATEGO -0.2218
-2.5977 READY -0.2218
-2.5977 RIP -0.2218
-2.5977 ROTEGO -0.2218
-2.5977 SEND -0.2218
-2.5977 SHAKE -0.2218
-2.5977 SHOE -0.2218
-2.5977 SHUT -0.2218
-2.5977 SINCE -0.2218
-2.5977 SKY -0.2218
-2.5977 SPEAK -0.2218
-2.5977 STAR -0.2218
-2.5977 STILL -0.2218
-2.5977 TEGA -0.2218
-2.5977 TEGAA -0.2218
-2.5977 TEGO -0.2218
-2.5977 TEGOO -0.2218

\2-grams:
-2.1206 <s> ABLE 0.0000
-2.1206 <s> AN 0.0000
-2.1206 <s> ARRIVE 0.0000
-2.1206 <s> ATEGO 0.0000
-2.1206 <s> BAD 0.0000
-2.1206 <s> BUDDY 0.0000
-2.1206 <s> CADABRA 0.0000
-2.1206 <s> CALL 0.0000
-2.1206 <s> CAT 0.0000
-2.1206 <s> CHANGE 0.0000
-2.1206 <s> DAMN 0.0000
-2.1206 <s> DOUBT 0.0000
-2.1206 <s> DROP 0.0000
-2.1206 <s> EDGE 0.0000
-2.1206 <s> EEGA 0.0000
-2.1206 <s> EEGAA 0.0000
-2.1206 <s> EEGO 0.0000
-2.1206 <s> EEGOO 0.0000
-2.1206 <s> EGA 0.0000
-2.1206 <s> EGO 0.0000
-2.1206 <s> FINANCE 0.0000
-2.1206 <s> GRIN 0.0000
-2.1206 <s> LIFE 0.0000
-2.1206 <s> LOAD 0.0000
-2.1206 <s> LYMUS 0.0000
-2.1206 <s> MANAGER 0.0000
-2.1206 <s> MAXIMA 0.0000
-2.1206 <s> MOM 0.0000
-2.1206 <s> NAME 0.0000
-2.1206 <s> NICE 0.0000
-2.1206 <s> NOTE 0.0000
-2.1206 <s> OTEGA 0.0000
-2.1206 <s> OTEGO 0.0000
-2.1206 <s> PAINT 0.0000
-2.1206 <s> PAY 0.0000
-2.1206 <s> PIOPLE 0.0000
-2.1206 <s> PLACE 0.0000
-2.1206 <s> POSITION 0.0000
-2.1206 <s> PRATEGA 0.0000
-2.1206 <s> PRATEGO 0.0000
-2.1206 <s> PROBABLY 0.0000
-2.1206 <s> PROOTEGO 0.0000
-2.1206 <s> PROTECTED 0.0000
-2.1206 <s> PROTEEGO 0.0000
-2.1206 <s> PROTEGA 0.0000
-2.1206 <s> PROTEGO 0.0000
-2.1206 <s> PROTEGOO 0.0000
-2.1206 <s> QUIETLY 0.0000
-2.1206 <s> RATEGA 0.0000
-2.1206 <s> RATEGO 0.0000
-2.1206 <s> READY 0.0000
-2.1206 <s> RIP 0.0000
-2.1206 <s> ROTEGO 0.0000
-2.1206 <s> SEND 0.0000
-2.1206 <s> SHAKE 0.0000
-2.1206 <s> SHOE 0.0000
-2.1206 <s> SHUT 0.0000
-2.1206 <s> SINCE 0.0000
-2.1206 <s> SKY 0.0000
-2.1206 <s> SPEAK 0.0000
-2.1206 <s> STAR 0.0000
-2.1206 <s> STILL 0.0000
-2.1206 <s> TEGA 0.0000
-2.1206 <s> TEGAA 0.0000
-2.1206 <s> TEGO 0.0000
-2.1206 <s> TEGOO 0.0000
-0.3010 ABLE </s> -0.3010
-0.3010 AN </s> -0.3010
-0.3010 ARRIVE </s> -0.3010
-0.3010 ATEGO </s> -0.3010
-0.3010 BAD </s> -0.3010
-0.3010 BUDDY </s> -0.3010
-0.3010 CADABRA </s> -0.3010
-0.3010 CALL </s> -0.3010
-0.3010 CAT </s> -0.3010
-0.3010 CHANGE </s> -0.3010
-0.3010 DAMN </s> -0.3010
-0.3010 DOUBT </s> -0.3010
-0.3010 DROP </s> -0.3010
-0.3010 EDGE </s> -0.3010
-0.3010 EEGA </s> -0.3010
-0.3010 EEGAA </s> -0.3010
-0.3010 EEGO </s> -0.3010
-0.3010 EEGOO </s> -0.3010
-0.3010 EGA </s> -0.3010
-0.3010 EGO </s> -0.3010
-0.3010 FINANCE </s> -0.3010
-0.3010 GRIN </s> -0.3010
-0.3010 LIFE </s> -0.3010
-0.3010 LOAD </s> -0.3010
-0.3010 LYMUS </s> -0.3010
-0.3010 MANAGER </s> -0.3010
-0.3010 MAXIMA </s> -0.3010
-0.3010 MOM </s> -0.3010
-0.3010 NAME </s> -0.3010
-0.3010 NICE </s> -0.3010
-0.3010 NOTE </s> -0.3010
-0.3010 OTEGA </s> -0.3010
-0.3010 OTEGO </s> -0.3010
-0.3010 PAINT </s> -0.3010
-0.3010 PAY </s> -0.3010
-0.3010 PIOPLE </s> -0.3010
-0.3010 PLACE </s> -0.3010
-0.3010 POSITION </s> -0.3010
-0.3010 PRATEGA </s> -0.3010
-0.3010 PRATEGO </s> -0.3010
-0.3010 PROBABLY </s> -0.3010
-0.3010 PROOTEGO </s> -0.3010
-0.3010 PROTECTED </s> -0.3010
-0.3010 PROTEEGO </s> -0.3010
-0.3010 PROTEGA </s> -0.3010
-0.3010 PROTEGO </s> -0.3010
-0.3010 PROTEGOO </s> -0.3010
-0.3010 QUIETLY </s> -0.3010
-0.3010 RATEGA </s> -0.3010
-0.3010 RATEGO </s> -0.3010
-0.3010 READY </s> -0.3010
-0.3010 RIP </s> -0.3010
-0.3010 ROTEGO </s> -0.3010
-0.3010 SEND </s> -0.3010
-0.3010 SHAKE </s> -0.3010
-0.3010 SHOE </s> -0.3010
-0.3010 SHUT </s> -0.3010
-0.3010 SINCE </s> -0.3010
-0.3010 SKY </s> -0.3010
-0.3010 SPEAK </s> -0.3010
-0.3010 STAR </s> -0.3010
-0.3010 STILL </s> -0.3010
-0.3010 TEGA </s> -0.3010
-0.3010 TEGAA </s> -0.3010
-0.3010 TEGO </s> -0.3010
-0.3010 TEGOO </s> -0.3010

\3-grams:
-0.3010 <s> ABLE </s>
-0.3010 <s> AN </s>
-0.3010 <s> ARRIVE </s>
-0.3010 <s> ATEGO </s>
-0.3010 <s> BAD </s>
-0.3010 <s> BUDDY </s>
-0.3010 <s> CADABRA </s>
-0.3010 <s> CALL </s>
-0.3010 <s> CAT </s>
-0.3010 <s> CHANGE </s>
-0.3010 <s> DAMN </s>
-0.3010 <s> DOUBT </s>
-0.3010 <s> DROP </s>
-0.3010 <s> EDGE </s>
-0.3010 <s> EEGA </s>
-0.3010 <s> EEGAA </s>
-0.3010 <s> EEGO </s>
-0.3010 <s> EEGOO </s>
-0.3010 <s> EGA </s>
-0.3010 <s> EGO </s>
-0.3010 <s> FINANCE </s>
-0.3010 <s> GRIN </s>
-0.3010 <s> LIFE </s>
-0.3010 <s> LOAD </s>
-0.3010 <s> LYMUS </s>
-0.3010 <s> MANAGER </s>
-0.3010 <s> MAXIMA </s>
-0.3010 <s> MOM </s>
-0.3010 <s> NAME </s>
-0.3010 <s> NICE </s>
-0.3010 <s> NOTE </s>
-0.3010 <s> OTEGA </s>
-0.3010 <s> OTEGO </s>
-0.3010 <s> PAINT </s>
-0.3010 <s> PAY </s>
-0.3010 <s> PIOPLE </s>
-0.3010 <s> PLACE </s>
-0.3010 <s> POSITION </s>
-0.3010 <s> PRATEGA </s>
-0.3010 <s> PRATEGO </s>
-0.3010 <s> PROBABLY </s>
-0.3010 <s> PROOTEGO </s>
-0.3010 <s> PROTECTED </s>
-0.3010 <s> PROTEEGO </s>
-0.3010 <s> PROTEGA </s>
-0.3010 <s> PROTEGO </s>
-0.3010 <s> PROTEGOO </s>
-0.3010 <s> QUIETLY </s>
-0.3010 <s> RATEGA </s>
-0.3010 <s> RATEGO </s>
-0.3010 <s> READY </s>
-0.3010 <s> RIP </s>
-0.3010 <s> ROTEGO </s>
-0.3010 <s> SEND </s>
-0.3010 <s> SHAKE </s>
-0.3010 <s> SHOE </s>
-0.3010 <s> SHUT </s>
-0.3010 <s> SINCE </s>
-0.3010 <s> SKY </s>
-0.3010 <s> SPEAK </s>
-0.3010 <s> STAR </s>
-0.3010 <s> STILL </s>
-0.3010 <s> TEGA </s>
-0.3010 <s> TEGAA </s>
-0.3010 <s> TEGO </s>
-0.3010 <s> TEGOO </s>

\end\